<?xml version="1.0"?>
<opencv_storage>
<cascade>
  <stageType>BOOST</stageType>
  <featureType>HAAR</featureType>
  <height>24</height>
  <width>24</width>
  <stageParams>
    <boostType>GAB</boostType>
    <minHitRate>9.9500000476837158e-01</minHitRate>
    <maxFalseAlarm>5.0000000000000000e-01</maxFalseAlarm>
    <weightTrimRate>9.4999998807907104e-01</weightTrimRate>
    <maxDepth>1</maxDepth>
    <maxWeakCount>100</maxWeakCount></stageParams>
  <featureParams>
    <maxCatCount>0</maxCatCount>
    <featSize>1</featSize>
    <mode>BASIC</mode></featureParams>
  <stageNum>1</stageNum>
  <stages>
    <!-- stage 0 -->
    <_>
      <maxWeakCount>17</maxWeakCount>
      <stageThreshold>-2.7634271979331970e-01</stageThreshold>
      <weakClassifiers>
        <_>
          <internalNodes>
            0 -1 7 5.4402101039886475e-01</internalNodes>
          <leafValues>
            8.1987649202346802e-01 -6.7796611785888672e-01</leafValues></_>
        <_>
          <internalNodes>
            0 -1 2 -1.2651117518544197e-02</internalNodes>
          <leafValues>
            8.0543279647827148e-01 -5.4033558815717697e-02</leafValues></_>
        <_>
          <internalNodes>
            0 -1 13 1.2848598882555962e-02</internalNodes>
          <leafValues>
            -1.4330217242240906e-01 6.1822235584259033e-01</leafValues></_>
        <_>
          <internalNodes>
            0 -1 12 -2.7763519436120987e-02</internalNodes>
          <leafValues>
            5.8015960454940796e-01 -1.8147315084934235e-01</leafValues></_>
        <_>
          <internalNodes>
            0 -1 8 -3.2615959644317627e-02</internalNodes>
          <leafValues>
            3.0058366060256958e-01 -3.1965392827987671e-01</leafValues></_>
        <_>
          <internalNodes>
            0 -1 14 -8.2850689068436623e-04</internalNodes>
          <leafValues>
            -5.9467315673828125e-01 1.6966564953327179e-01</leafValues></_>
        <_>
          <internalNodes>
            0 -1 6 -3.9722758810967207e-04</internalNodes>
          <leafValues>
            -5.6992101669311523e-01 1.3390776515007019e-01</leafValues></_>
        <_>
          <internalNodes>
            0 -1 4 6.1082709580659866e-03</internalNodes>
          <leafValues>
            -2.2159089148044586e-01 4.5332297682762146e-01</leafValues></_>
        <_>
          <internalNodes>
            0 -1 1 -8.9038033038377762e-03</internalNodes>
          <leafValues>
            6.1100846529006958e-01 -1.3648296892642975e-01</leafValues></_>
        <_>
          <internalNodes>
            0 -1 0 1.1900166049599648e-02</internalNodes>
          <leafValues>
            -1.7201191186904907e-01 5.5474442243576050e-01</leafValues></_>
        <_>
          <internalNodes>
            0 -1 9 -3.7380034336820245e-04</internalNodes>
          <leafValues>
            -5.5402326583862305e-01 1.8286021053791046e-01</leafValues></_>
        <_>
          <internalNodes>
            0 -1 9 2.5646795984357595e-04</internalNodes>
          <leafValues>
            1.6267052292823792e-01 -5.3232729434967041e-01</leafValues></_>
        <_>
          <internalNodes>
            0 -1 11 -2.0756315439939499e-02</internalNodes>
          <leafValues>
            5.1308447122573853e-01 -1.8928973376750946e-01</leafValues></_>
        <_>
          <internalNodes>
            0 -1 5 -1.1835593730211258e-02</internalNodes>
          <leafValues>
            5.0422936677932739e-01 -1.4100697636604309e-01</leafValues></_>
        <_>
          <internalNodes>
            0 -1 6 4.1342776967212558e-04</internalNodes>
          <leafValues>
            1.4155973494052887e-01 -5.4881471395492554e-01</leafValues></_>
        <_>
          <internalNodes>
            0 -1 3 -5.0031724385917187e-03</internalNodes>
          <leafValues>
            -6.4134383201599121e-01 9.9237777292728424e-02</leafValues></_>
        <_>
          <internalNodes>
            0 -1 10 2.9346272349357605e-02</internalNodes>
          <leafValues>
            -1.7468012869358063e-01 4.1182345151901245e-01</leafValues></_></weakClassifiers></_></stages>
  <features>
    <_>
      <rects>
        <_>
          0 8 6 5 -1.</_>
        <_>
          3 8 3 5 2.</_></rects>
      <tilted>0</tilted></_>
    <_>
      <rects>
        <_>
          0 10 4 9 -1.</_>
        <_>
          2 10 2 9 2.</_></rects>
      <tilted>0</tilted></_>
    <_>
      <rects>
        <_>
          0 13 6 8 -1.</_>
        <_>
          3 13 3 8 2.</_></rects>
      <tilted>0</tilted></_>
    <_>
      <rects>
        <_>
          0 18 1 6 -1.</_>
        <_>
          0 21 1 3 2.</_></rects>
      <tilted>0</tilted></_>
    <_>
      <rects>
        <_>
          1 13 9 3 -1.</_>
        <_>
          4 13 3 3 3.</_></rects>
      <tilted>0</tilted></_>
    <_>
      <rects>
        <_>
          2 10 9 5 -1.</_>
        <_>
          5 10 3 5 3.</_></rects>
      <tilted>0</tilted></_>
    <_>
      <rects>
        <_>
          3 23 3 1 -1.</_>
        <_>
          4 23 1 1 3.</_></rects>
      <tilted>0</tilted></_>
    <_>
      <rects>
        <_>
          4 0 17 24 -1.</_>
        <_>
          4 12 17 12 2.</_></rects>
      <tilted>0</tilted></_>
    <_>
      <rects>
        <_>
          5 12 13 12 -1.</_>
        <_>
          5 16 13 4 3.</_></rects>
      <tilted>0</tilted></_>
    <_>
      <rects>
        <_>
          7 23 3 1 -1.</_>
        <_>
          8 23 1 1 3.</_></rects>
      <tilted>0</tilted></_>
    <_>
      <rects>
        <_>
          9 1 15 11 -1.</_>
        <_>
          14 1 5 11 3.</_></rects>
      <tilted>0</tilted></_>
    <_>
      <rects>
        <_>
          9 8 12 8 -1.</_>
        <_>
          13 8 4 8 3.</_></rects>
      <tilted>0</tilted></_>
    <_>
      <rects>
        <_>
          12 8 12 8 -1.</_>
        <_>
          18 8 6 8 2.</_></rects>
      <tilted>0</tilted></_>
    <_>
      <rects>
        <_>
          18 14 6 6 -1.</_>
        <_>
          21 14 3 6 2.</_></rects>
      <tilted>0</tilted></_>
    <_>
      <rects>
        <_>
          21 21 3 3 -1.</_>
        <_>
          22 21 1 3 3.</_></rects>
      <tilted>0</tilted></_></features></cascade>
</opencv_storage>
